{"learner":{"attributes":{},"gradient_booster":{"model":{"gbtree_model_param":{"num_trees":"14","size_leaf_vector":"0"},"tree_info":[0,0,0,0,0,0,0,0,0,0,0,0,0,0],"trees":[{"base_weights":[-1.1897715E0,-1.6916571E0,1.6528059E0,-5.6652826E-1,-1.7611921E0,1.9534047E0,9.6539587E-1,-8.6577326E-1,1.1068884E0,-1.7731651E0,1.2492998E0,-1.018868E0,1.9662825E0,-1.1187739E0,1.4984049E0,-5.484892E-1,-1.7593496E0,1.5592748E0,-1.4418604E0,-9.2726845E-1,-1.8151087E0,1.3819242E0,-1.5555556E0,1.3846154E0,-1.6363636E0,6.055046E-1,1.9784741E0,-6.7567565E-2,-1.5265957E0,5.8582675E-1,1.9088644E0],"categories":[],"categories_nodes":[],"categories_segments":[],"categories_sizes":[],"default_left":[true,true,true,true,true,true,true,true,true,true,true,true,true,true,true,false,false,false,false,false,false,false,false,false,false,false,false,false,false,false,false],"id":0,"left_children":[1,3,5,7,9,11,13,15,17,19,21,23,25,27,29,-1,-1,-1,-1,-1,-1,-1,-1,-1,-1,-1,-1,-1,-1,-1,-1],"loss_changes":[3.989367E4,1.8583359E3,8.6525684E2,6.943878E2,8.0896875E2,1.1372266E2,1.4222158E3,3.3223895E2,2.449588E2,7.893047E2,3.5349976E1,2.1930597E1,4.7021484E1,1.1178879E2,3.8048145E2,0E0,0E0,0E0,0E0,0E0,0E0,0E0,0E0,0E0,0E0,0E0,0E0,0E0,0E0,0E0,0E0],"parents":[2147483647,0,0,1,1,2,2,3,3,4,4,5,5,6,6,7,7,8,8,9,9,10,10,11,11,12,12,13,13,14,14],"right_children":[2,4,6,8,10,12,14,16,18,20,22,24,26,28,30,-1,-1,-1,-1,-1,-1,-1,-1,-1,-1,-1,-1,-1,-1,-1,-1],"split_conditions":[-6.0862027E-2,-6.001773E-1,-2.2779441E-1,-2.4729279E-1,3.263514E0,-2.3230898E-1,3.5172033E-1,4.4787037E-1,4.203725E-1,-4.4747275E-1,3.3244526E-1,-5.908194E-1,-8.602025E-2,4.4651954E-3,3.4150004E0,-5.484892E-1,-1.7593496E0,1.5592748E0,-1.4418604E0,-9.2726845E-1,-1.8151087E0,1.3819242E0,-1.5555556E0,1.3846154E0,-1.6363636E0,6.055046E-1,1.9784741E0,-6.7567565E-2,-1.5265957E0,5.8582675E-1,1.9088644E0],"split_indices":[3,7,22,3,22,38,48,15,20,8,14,37,8,22,47,0,0,0,0,0,0,0,0,0,0,0,0,0,0,0,0],"split_type":[0,0,0,0,0,0,0,0,0,0,0,0,0,0,0,0,0,0,0,0,0,0,0,0,0,0,0,0,0,0,0],"sum_hessian":[2.796025E4,2.376475E4,4.1955E3,1.38375E3,2.2381E4,2.91775E3,1.27775E3,1.17425E3,2.095E2,2.229275E4,8.825E1,1.225E1,2.9055E3,2.6E2,1.01775E3,8.6775E2,3.065E2,1.7825E2,3.125E1,1.05425E3,2.12385E4,8.475E1,3.5E0,2.25E0,1E1,2.625E1,2.87925E3,7.3E1,1.87E2,3.165E2,7.0125E2],"tree_param":{"num_deleted":"0","num_feature":"50","num_nodes":"31","size_leaf_vector":"0"}},{"base_weights":[-4.5579004E-1,-6.7734396E-1,8.255664E-1,6.6219926E-1,-7.55643E-1,1.1305972E0,3.9991446E-2,1.10665E0,-9.704307E-1,5.651063E-1,-8.344095E-1,-1.2058216E0,1.151734E0,-1.3379936E0,9.8143506E-1,2.0190048E0,2.0429905E-1,1.0030951E0,-1.0933924E0,1.6087401E0,-3.762005E-1,4.0189323E-1,-8.6148286E-1,8.3494216E-1,-1.4402499E0,-8.4290886E-1,1.1695116E0,-8.040375E-1,-2.2100868E0,-1.5596001E0,1.0235444E0],"categories":[],"categories_nodes":[],"categories_segments":[],"categories_sizes":[],"default_left":[true,true,true,true,true,true,true,true,true,true,true,true,true,true,true,false,false,false,false,false,false,false,false,false,false,false,false,false,false,false,false],"id":1,"left_children":[1,3,5,7,9,11,13,15,17,19,21,23,25,27,29,-1,-1,-1,-1,-1,-1,-1,-1,-1,-1,-1,-1,-1,-1,-1,-1],"loss_changes":[4.0526628E3,1.2769409E3,5.0426978E2,4.89132E2,1.1966494E3,7.625171E1,7.66292E2,4.3521716E2,3.615161E1,6.369269E2,3.635586E2,7.9383965E0,5.4276855E1,1.0987317E2,3.9143494E1,0E0,0E0,0E0,0E0,0E0,0E0,0E0,0E0,0E0,0E0,0E0,0E0,0E0,0E0,0E0,0E0],"parents":[2147483647,0,0,1,1,2,2,3,3,4,4,5,5,6,6,7,7,8,8,9,9,10,10,11,11,12,12,13,13,14,14],"right_children":[2,4,6,8,10,12,14,16,18,20,22,24,26,28,30,-1,-1,-1,-1,-1,-1,-1,-1,-1,-1,-1,-1,-1,-1,-1,-1],"split_conditions":[-1.06864214E-1,-6.2055826E-1,8.209275E-2,4.2427048E-1,-4.4576252E-1,-2.5816163E-1,3.1503873E0,-1.911625E-1,-4.2515182E-1,-4.1043967E-1,-6.421331E-1,-1.0414648E-1,-2.2462298E-1,9.21185E-1,3.923236E-1,2.0190048E0,2.0429905E-1,1.0030951E0,-1.0933924E0,1.6087401E0,-3.762005E-1,4.0189323E-1,-8.6148286E-1,8.3494216E-1,-1.4402499E0,-8.4290886E-1,1.1695116E0,-8.040375E-1,-2.2100868E0,-1.5596001E0,1.0235444E0],"split_indices":[43,2,42,16,3,18,2,15,23,13,17,43,48,4,45,0,0,0,0,0,0,0,0,0,0,0,0,0,0,0,0],"split_type":[0,0,0,0,0,0,0,0,0,0,0,0,0,0,0,0,0,0,0,0,0,0,0,0,0,0,0,0,0,0,0],"sum_hessian":[1.4272519E4,1.2168915E4,2.1036042E3,6.7160516E2,1.149731E4,1.5149323E3,5.8867206E2,5.281493E2,1.4345586E2,6.467351E2,1.0850574E4,1.3079623E1,1.5018525E3,2.3876787E2,3.4990424E2,2.6200354E2,2.6614575E2,7.994058E0,1.3546179E2,3.0636115E2,3.4037396E2,2.322249E2,1.061835E4,1.0837415E0,1.1995882E1,1.2857247E1,1.4889954E3,1.4928635E2,8.948152E1,5.1165285E0,3.447877E2],"tree_param":{"num_deleted":"0","num_feature":"50","num_nodes":"31","size_leaf_vector":"0"}},{"base_weights":[-2.4875875E-1,-3.9968985E-1,5.590814E-1,6.3389534E-1,-5.026908E-1,1.1672689E0,1.1495136E-1,-9.5331855E-2,2.2042828E0,4.104448E-1,-5.745928E-1,1.7194315E0,1.0093105E0,-3.213719E-1,7.4178314E-1,-6.218169E-1,1.9917043E0,3.5459254E0,5.9479517E-1,1.082442E0,-4.246618E-1,-8.25747E-1,-4.1971037E-1,2.218035E0,-7.023404E-2,2.2769862E-1,1.0312573E0,-4.5041555E-1,1.7556587E0,1.296063E0,3.4721988E-1],"categories":[],"categories_nodes":[],"categories_segments":[],"categories_sizes":[],"default_left":[true,true,true,true,true,true,true,true,true,true,true,true,true,true,true,false,false,false,false,false,false,false,false,false,false,false,false,false,false,false,false],"id":2,"left_children":[1,3,5,7,9,11,13,15,17,19,21,23,25,27,29,-1,-1,-1,-1,-1,-1,-1,-1,-1,-1,-1,-1,-1,-1,-1,-1],"loss_changes":[9.919178E2,7.299584E2,3.4582617E2,7.119785E2,4.094779E2,4.5401794E1,2.0299692E2,4.686683E2,4.2358014E2,2.5611685E2,2.2443481E2,1.0616077E2,7.01532E0,1.18130844E2,6.615523E1,0E0,0E0,0E0,0E0,0E0,0E0,0E0,0E0,0E0,0E0,0E0,0E0,0E0,0E0,0E0,0E0],"parents":[2147483647,0,0,1,1,2,2,3,3,4,4,5,5,6,6,7,7,8,8,9,9,10,10,11,11,12,12,13,13,14,14],"right_children":[2,4,6,8,10,12,14,16,18,20,22,24,26,28,30,-1,-1,-1,-1,-1,-1,-1,-1,-1,-1,-1,-1,-1,-1,-1,-1],"split_conditions":[-1.9968636E-1,-4.3528897E-1,-4.2069966E-1,4.1899812E-1,-6.207684E-1,-6.0738567E-2,8.698473E-1,5.0267583E-1,-4.129808E-1,-1.911167E-1,-4.975029E-1,4.2144555E-1,-8.1623495E-2,4.963971E0,2.305149E0,-6.218169E-1,1.9917043E0,3.5459254E0,5.9479517E-1,1.082442E0,-4.246618E-1,-8.25747E-1,-4.1971037E-1,2.218035E0,-7.023404E-2,2.2769862E-1,1.0312573E0,-4.5041555E-1,1.7556587E0,1.296063E0,3.4721988E-1],"split_indices":[8,48,12,40,32,3,48,36,43,16,1,40,29,2,17,0,0,0,0,0,0,0,0,0,0,0,0,0,0,0,0],"split_type":[0,0,0,0,0,0,0,0,0,0,0,0,0,0,0,0,0,0,0,0,0,0,0,0,0,0,0,0,0,0,0],"sum_hessian":[8.1324287E3,6.852636E3,1.2797925E3,6.205399E2,6.232096E3,5.3944855E2,7.4034393E2,4.244029E2,1.9613701E2,4.5456317E2,5.777533E3,1.1779529E2,4.2165326E2,4.3679102E2,3.0355292E2,3.39469E2,8.49339E1,1.0631304E2,8.982396E1,2.5171548E2,2.0284769E2,2.2021846E3,3.5753486E3,9.1941025E1,2.585426E1,1.1826832E1,4.0982642E2,4.119784E2,2.4812622E1,1.2527818E2,1.7827472E2],"tree_param":{"num_deleted":"0","num_feature":"50","num_nodes":"31","size_leaf_vector":"0"}},{"base_weights":[-1.2203875E-1,-5.484136E-1,1.11015685E-1,4.485467E0,-6.262107E-1,3.7044525E0,-2.1096864E-1,1.7296473E1,1.6549662E0,-6.804335E-1,1.3520265E0,5.2114406E0,1.2191362E0,-5.9627897E-1,2.8475854E-1,4.211178E0,1.9488058E1,3.3601704E0,1.139191E0,1.2638602E-1,-7.384869E-1,3.496821E0,5.637801E-1,3.0367544E0,1.5032308E1,1.0563824E0,1.4883832E0,2.2440626E-1,-7.113116E-1,4.04875E0,-2.8921317E-3],"categories":[],"categories_nodes":[],"categories_segments":[],"categories_sizes":[],"default_left":[true,true,true,true,true,true,true,true,true,true,true,true,true,true,true,false,false,false,false,false,false,false,false,false,false,false,false,false,false,false,false],"id":3,"left_children":[1,3,5,7,9,11,13,15,17,19,21,23,25,27,29,-1,-1,-1,-1,-1,-1,-1,-1,-1,-1,-1,-1,-1,-1,-1,-1],"loss_changes":[5.6987427E2,7.965436E2,4.29169E3,1.0943674E3,2.1511017E2,1.1360747E3,6.5046436E2,7.56134E1,1.9453262E1,9.115765E1,8.865767E1,4.0033057E3,3.5304108E0,1.8103351E2,1.6128262E3,0E0,0E0,0E0,0E0,0E0,0E0,0E0,0E0,0E0,0E0,0E0,0E0,0E0,0E0,0E0,0E0],"parents":[2147483647,0,0,1,1,2,2,3,3,4,4,5,5,6,6,7,7,8,8,9,9,10,10,11,11,12,12,13,13,14,14],"right_children":[2,4,6,8,10,12,14,16,18,20,22,24,26,28,30,-1,-1,-1,-1,-1,-1,-1,-1,-1,-1,-1,-1,-1,-1,-1,-1],"split_conditions":[-4.975029E-1,1.12948306E-1,-1.9211845E-1,-2.2248593E-1,8.2967854E-1,-7.658623E-2,-5.093129E-1,-5.846768E-1,1.3520914E-1,-6.434943E-1,-1.476503E-1,-4.5320684E-1,-2.382237E-1,-5.992E-1,-1.9225997E-1,4.211178E0,1.9488058E1,3.3601704E0,1.139191E0,1.2638602E-1,-7.384869E-1,3.496821E0,5.637801E-1,3.0367544E0,1.5032308E1,1.0563824E0,1.4883832E0,2.2440626E-1,-7.113116E-1,4.04875E0,-2.8921317E-3],"split_indices":[6,5,6,8,24,3,5,7,33,37,13,22,22,42,5,0,0,0,0,0,0,0,0,0,0,0,0,0,0,0,0],"split_type":[0,0,0,0,0,0,0,0,0,0,0,0,0,0,0,0,0,0,0,0,0,0,0,0,0,0,0,0,0,0,0],"sum_hessian":[5.733344E3,2.0257911E3,3.707553E3,2.9969229E1,1.9958219E3,3.0402643E2,3.4035266E3,4.4984126E0,2.5470816E1,1.9432151E3,5.2606823E1,1.8858173E2,1.15444695E2,1.9149243E3,1.4886023E3,1.0644464E0,3.433966E0,4.634362E0,2.0836454E1,1.3035664E2,1.8128584E3,1.3214463E1,3.939236E1,1.5546541E2,3.311631E1,7.502014E1,4.0424553E1,2.3529459E2,1.6796296E3,1.0475663E2,1.3838457E3],"tree_param":{"num_deleted":"0","num_feature":"50","num_nodes":"31","size_leaf_vector":"0"}},{"base_weights":[-7.08278E-2,8.92506E-1,-1.9220912E-1,2.7764827E-1,2.5036068E0,-7.083115E-1,-1.95602E-2,-2.2792983E-1,1.6183101E0,2.7850392E0,-7.58649E-1,1.3787906E0,-7.52358E-1,-5.628341E-1,2.1846806E-1,-5.5570346E-1,1.4958699E0,2.1110141E0,-5.7610774E-1,1.6941301E0,3.60764E0,-9.9620533E-1,7.8222066E-1,1.6122005E0,1.0014648E0,1.815472E-1,-8.49895E-1,-1.1702377E-1,-8.413098E-1,7.9632384E-1,8.0448605E-2],"categories":[],"categories_nodes":[],"categories_segments":[],"categories_sizes":[],"default_left":[true,true,true,true,true,true,true,true,true,true,true,true,true,true,true,false,false,false,false,false,false,false,false,false,false,false,false,false,false,false,false],"id":4,"left_children":[1,3,5,7,9,11,13,15,17,19,21,23,25,27,29,-1,-1,-1,-1,-1,-1,-1,-1,-1,-1,-1,-1,-1,-1,-1,-1],"loss_changes":[4.7961032E2,4.5398474E2,3.2452258E2,2.2630692E2,1.1839966E2,8.496536E1,3.5318262E2,1.3809116E2,1.0004289E2,9.871576E1,4.748979E0,7.83577E-2,8.165625E1,1.0319995E2,1.514054E2,0E0,0E0,0E0,0E0,0E0,0E0,0E0,0E0,0E0,0E0,0E0,0E0,0E0,0E0,0E0,0E0],"parents":[2147483647,0,0,1,1,2,2,3,3,4,4,5,5,6,6,7,7,8,8,9,9,10,10,11,11,12,12,13,13,14,14],"right_children":[2,4,6,8,10,12,14,16,18,20,22,24,26,28,30,-1,-1,-1,-1,-1,-1,-1,-1,-1,-1,-1,-1,-1,-1,-1,-1],"split_conditions":[-4.2837405E-1,-1.08692765E-1,-1.107954E0,4.339919E-1,-1.945365E-1,4.181739E-1,-1.107954E0,4.774961E-1,-3.474649E-1,-4.4594508E-1,-2.584077E-1,-2.2056723E-1,-4.1498142E-1,-4.077923E-1,-5.9538925E-1,-5.5570346E-1,1.4958699E0,2.1110141E0,-5.7610774E-1,1.6941301E0,3.60764E0,-9.9620533E-1,7.8222066E-1,1.6122005E0,1.0014648E0,1.815472E-1,-8.49895E-1,-1.1702377E-1,-8.413098E-1,7.9632384E-1,8.0448605E-2],"split_indices":[33,2,35,10,4,36,36,26,39,3,48,23,8,14,47,0,0,0,0,0,0,0,0,0,0,0,0,0,0,0,0],"split_type":[0,0,0,0,0,0,0,0,0,0,0,0,0,0,0,0,0,0,0,0,0,0,0,0,0,0,0,0,0,0,0],"sum_hessian":[4.099195E3,4.5799545E2,3.6411995E3,3.3233575E2,1.256597E2,9.1195984E2,2.7292397E3,2.4193095E2,9.04048E1,1.15814735E2,9.844964E0,1.8222057E1,8.9373773E2,8.310631E2,1.8981766E3,2.0384775E2,3.8083206E1,7.3859436E1,1.6545362E1,5.110297E1,6.471177E1,8.836167E0,1.0087962E0,9.236035E0,8.986022E0,8.44337E1,8.093041E2,3.2007574E2,5.1098734E2,3.6504544E2,1.5331311E3],"tree_param":{"num_deleted":"0","num_feature":"50","num_nodes":"31","size_leaf_vector":"0"}},{"base_weights":[-2.0187223E-1,-2.5868794E-1,8.631027E-1,3.491855E-1,-3.3003646E-1,1.7470579E0,2.9446375E-1,-2.0997284E-1,1.569813E0,-9.541133E-1,-2.0434886E-1,4.160945E0,1.5922399E0,-6.471328E-1,7.773609E-1,-6.091984E-1,1.3144728E0,1.6852148E-1,2.034899E0,-4.7097945E-1,-1.386871E0,3.9724258E-1,-2.6661247E-1,6.5593535E-1,5.2585897E0,6.677516E-2,1.7393085E0,2.0627725E-1,-1.80481E0,9.2659956E-1,-2.3782654E0],"categories":[],"categories_nodes":[],"categories_segments":[],"categories_sizes":[],"default_left":[true,true,true,true,true,true,true,true,true,true,true,true,true,true,true,false,false,false,false,false,false,false,false,false,false,false,false,false,false,false,false],"id":5,"left_children":[1,3,5,7,9,11,13,15,17,19,21,23,25,27,29,-1,-1,-1,-1,-1,-1,-1,-1,-1,-1,-1,-1,-1,-1,-1,-1],"loss_changes":[2.2859996E2,1.5555533E2,9.56891E1,2.5761566E2,2.5143738E2,2.1298828E1,5.4007694E1,1.586793E2,7.691794E1,1.11728485E2,1.00173164E2,1.1491943E1,1.6000336E1,4.0321877E1,3.9048157E1,0E0,0E0,0E0,0E0,0E0,0E0,0E0,0E0,0E0,0E0,0E0,0E0,0E0,0E0,0E0,0E0],"parents":[2147483647,0,0,1,1,2,2,3,3,4,4,5,5,6,6,7,7,8,8,9,9,10,10,11,11,12,12,13,13,14,14],"right_children":[2,4,6,8,10,12,14,16,18,20,22,24,26,28,30,-1,-1,-1,-1,-1,-1,-1,-1,-1,-1,-1,-1,-1,-1,-1,-1],"split_conditions":[3.0281858E0,-4.355476E-1,1.8402651E-1,4.672775E-1,-4.284206E-1,3.2322328E0,4.966502E0,4.7295308E-1,8.54308E-3,-1.0950954E-1,-6.408149E-1,2.768819E-2,-4.3565556E-1,1.2283106E0,5.105335E0,-6.091984E-1,1.3144728E0,1.6852148E-1,2.034899E0,-4.7097945E-1,-1.386871E0,3.9724258E-1,-2.6661247E-1,6.5593535E-1,5.2585897E0,6.677516E-2,1.7393085E0,2.0627725E-1,-1.80481E0,9.2659956E-1,-2.3782654E0],"split_indices":[37,23,49,11,33,22,7,15,6,2,27,39,49,19,9,0,0,0,0,0,0,0,0,0,0,0,0,0,0,0,0],"split_type":[0,0,0,0,0,0,0,0,0,0,0,0,0,0,0,0,0,0,0,0,0,0,0,0,0,0,0,0,0,0,0],"sum_hessian":[3.773366E3,3.5829736E3,1.9039218E2,3.759626E2,3.2070112E3,7.372051E1,1.1667167E2,2.5841364E2,1.1754895E2,5.36506E2,2.6705051E3,2.883609E0,7.083691E1,3.9435894E1,7.723578E1,2.0526001E2,5.3153614E1,2.9631721E1,8.791723E1,2.5448515E2,2.8202084E2,2.4996468E2,2.4205405E3,1.0686786E0,1.8149306E0,6.356664E0,6.448024E1,2.317425E1,1.6261646E1,7.4422485E1,2.8132863E0],"tree_param":{"num_deleted":"0","num_feature":"50","num_nodes":"31","size_leaf_vector":"0"}},{"base_weights":[-2.9598264E-2,-3.605976E-1,1.4111365E-1,2.6955768E-1,-5.0885785E-1,-2.108492E-1,5.239026E-1,-2.085903E-1,1.2344936E0,-6.259154E-1,3.368375E-2,-8.265299E-1,-5.402331E-2,1.2085457E0,3.7970822E-2,3.057346E-1,-6.704113E-1,1.5859251E0,9.1523E-2,-6.713925E-1,1.1331156E0,8.349355E-1,-7.2877586E-1,-8.666014E-1,6.826533E-1,-1.2354329E-1,1.2574127E0,5.6623876E-1,2.2978091E0,1.3696973E0,-1.535825E-1],"categories":[],"categories_nodes":[],"categories_segments":[],"categories_sizes":[],"default_left":[true,true,true,true,true,true,true,true,true,true,true,true,true,true,true,false,false,false,false,false,false,false,false,false,false,false,false,false,false,false,false],"id":6,"left_children":[1,3,5,7,9,11,13,15,17,19,21,23,25,27,29,-1,-1,-1,-1,-1,-1,-1,-1,-1,-1,-1,-1,-1,-1,-1,-1],"loss_changes":[1.8364955E2,1.0345409E2,2.8901456E2,9.773827E1,5.6897934E1,1.0789141E2,3.417875E2,3.3964634E1,2.8032219E1,5.969287E1,9.828574E1,1.4311539E1,8.148045E1,2.970952E2,1.5377463E2,0E0,0E0,0E0,0E0,0E0,0E0,0E0,0E0,0E0,0E0,0E0,0E0,0E0,0E0,0E0,0E0],"parents":[2147483647,0,0,1,1,2,2,3,3,4,4,5,5,6,6,7,7,8,8,9,9,10,10,11,11,12,12,13,13,14,14],"right_children":[2,4,6,8,10,12,14,16,18,20,22,24,26,28,30,-1,-1,-1,-1,-1,-1,-1,-1,-1,-1,-1,-1,-1,-1,-1,-1],"split_conditions":[-5.093129E-1,-5.938113E-1,-4.975029E-1,-1.8953903E-1,1.2574908E-1,-1.107954E0,-3.715938E-1,-1.9118837E-1,7.233995E-1,1.07249E0,-3.332522E-1,3.8252944E-1,9.131468E-1,-1.2928739E-1,-1.9219244E-1,3.057346E-1,-6.704113E-1,1.5859251E0,9.1523E-2,-6.713925E-1,1.1331156E0,8.349355E-1,-7.2877586E-1,-8.666014E-1,6.826533E-1,-1.2354329E-1,1.2574127E0,5.6623876E-1,2.2978091E0,1.3696973E0,-1.535825E-1],"split_indices":[40,12,41,39,7,0,29,36,41,44,9,3,14,32,40,0,0,0,0,0,0,0,0,0,0,0,0,0,0,0,0],"split_type":[0,0,0,0,0,0,0,0,0,0,0,0,0,0,0,0,0,0,0,0,0,0,0,0,0,0,0,0,0,0,0],"sum_hessian":[3.248216E3,1.1048572E3,2.143359E3,2.1027988E2,8.9457733E2,1.1168751E3,1.0264836E3,1.4113036E2,6.914951E1,7.356923E2,1.58885E2,2.2586891E2,8.910062E2,4.25499E2,6.009847E2,6.6929596E1,7.420077E1,5.259154E1,1.6557974E1,7.177542E2,1.7938114E1,7.742536E1,8.145963E1,2.2044159E2,5.4273267E0,8.470115E2,4.3994774E1,2.6862088E2,1.568781E2,7.480075E1,5.2618396E2],"tree_param":{"num_deleted":"0","num_feature":"50","num_nodes":"31","size_leaf_vector":"0"}},{"base_weights":[-1.4433391E-1,-5.1877606E-1,-3.363103E-2,3.7764978E-1,-6.538553E-1,-3.3688796E-1,1.9914313E-1,-4.8897347E-1,1.051021E0,1.6825432E0,-7.1378535E-1,3.0665576E-1,-4.3267566E-1,-2.0576535E-1,3.4573445E-1,-1.1632174E0,1.8137567E-1,1.8342112E0,-2.0277864E-1,1.9232451E0,9.534926E-1,-7.3597E-1,1.0452085E0,-4.155776E-1,1.3769753E0,1.4970187E0,-4.6180496E-1,6.963731E-1,-3.5257605E-1,-1.290847E-1,6.500818E-1],"categories":[],"categories_nodes":[],"categories_segments":[],"categories_sizes":[],"default_left":[true,true,true,true,true,true,true,true,true,true,true,true,true,true,true,false,false,false,false,false,false,false,false,false,false,false,false,false,false,false,false],"id":7,"left_children":[1,3,5,7,9,11,13,15,17,19,21,23,25,27,29,-1,-1,-1,-1,-1,-1,-1,-1,-1,-1,-1,-1,-1,-1,-1,-1],"loss_changes":[1.3172586E2,8.805493E1,1.7330098E2,5.6299576E1,8.9492096E1,6.584871E1,8.251718E1,1.9412022E1,5.3509304E1,9.857979E-1,2.4787445E1,1.0779362E2,5.287506E1,4.922738E1,1.4750949E2,0E0,0E0,0E0,0E0,0E0,0E0,0E0,0E0,0E0,0E0,0E0,0E0,0E0,0E0,0E0,0E0],"parents":[2147483647,0,0,1,1,2,2,3,3,4,4,5,5,6,6,7,7,8,8,9,9,10,10,11,11,12,12,13,13,14,14],"right_children":[2,4,6,8,10,12,14,16,18,20,22,24,26,28,30,-1,-1,-1,-1,-1,-1,-1,-1,-1,-1,-1,-1,-1,-1,-1,-1],"split_conditions":[-1.107954E0,-4.0921283E-1,-5.093129E-1,5.519065E-1,4.181739E-1,-6.1942667E-1,-4.975029E-1,5.182949E-1,-3.6659002E-1,-7.952405E-1,4.138747E0,-2.9252E-1,1.12948306E-1,-6.2782943E-1,-4.975029E-1,-1.1632174E0,1.8137567E-1,1.8342112E0,-2.0277864E-1,1.9232451E0,9.534926E-1,-7.3597E-1,1.0452085E0,-4.155776E-1,1.3769753E0,1.4970187E0,-4.6180496E-1,6.963731E-1,-3.5257605E-1,-1.290847E-1,6.500818E-1],"split_indices":[16,3,15,35,15,32,11,30,18,41,2,4,16,42,10,0,0,0,0,0,0,0,0,0,0,0,0,0,0,0,0],"split_type":[0,0,0,0,0,0,0,0,0,0,0,0,0,0,0,0,0,0,0,0,0,0,0,0,0,0,0,0,0,0,0],"sum_hessian":[3.1772273E3,7.2415497E2,2.4530723E3,9.459554E1,6.295594E2,1.0650646E3,1.3880077E3,4.148217E1,5.3113373E1,1.5067576E1,6.144918E2,1.3770445E2,9.2736017E2,3.6883188E2,1.0191758E3,2.031445E1,2.1167719E1,3.240719E1,2.0706184E1,1.0096217E1,4.9713593E0,6.0741266E2,7.079182E0,8.2587524E1,5.5116924E1,1.304123E1,9.143189E2,5.109771E1,3.177342E2,3.983214E2,6.208544E2],"tree_param":{"num_deleted":"0","num_feature":"50","num_nodes":"31","size_leaf_vector":"0"}},{"base_weights":[-6.606434E-2,4.493393E-1,-1.3478848E-1,-1.0954326E-3,1.6609448E0,8.467272E-1,-1.7485932E-1,-3.4480968E-1,1.149119E0,2.6616856E-1,2.1348436E0,-8.3087057E-1,1.0639647E0,-9.5079795E-2,-5.338724E-1,-4.1332364E-1,1.3616909E0,1.544491E-2,1.7917973E0,-9.1186404E-1,9.911598E-1,2.2858188E0,-1.0892986E0,-1.2516999E0,6.8421537E-1,-6.483229E-1,1.2344561E0,-1.2983708E-1,9.2838013E-1,-8.143335E-1,2.2952266E-1],"categories":[],"categories_nodes":[],"categories_segments":[],"categories_sizes":[],"default_left":[true,true,true,true,true,true,true,true,true,true,true,true,true,true,true,false,false,false,false,false,false,false,false,false,false,false,false,false,false,false,false],"id":8,"left_children":[1,3,5,7,9,11,13,15,17,19,21,23,25,27,29,-1,-1,-1,-1,-1,-1,-1,-1,-1,-1,-1,-1,-1,-1,-1,-1],"loss_changes":[9.5348175E1,1.728603E2,9.35349E1,9.20751E1,5.617073E1,3.4888298E1,6.531368E1,2.152779E1,3.9012985E1,2.0471815E1,3.3608215E1,8.034966E0,2.5044373E1,6.658515E1,8.897752E1,0E0,0E0,0E0,0E0,0E0,0E0,0E0,0E0,0E0,0E0,0E0,0E0,0E0,0E0,0E0,0E0],"parents":[2147483647,0,0,1,1,2,2,3,3,4,4,5,5,6,6,7,7,8,8,9,9,10,10,11,11,12,12,13,13,14,14],"right_children":[2,4,6,8,10,12,14,16,18,20,22,24,26,28,30,-1,-1,-1,-1,-1,-1,-1,-1,-1,-1,-1,-1,-1,-1,-1,-1],"split_conditions":[-4.2722917E-1,5.099157E-1,-6.752598E-1,5.370307E-1,-1.3389093E-1,-1.107954E0,3.9665818E-1,-3.041016E-1,6.684855E-1,4.8694894E-2,-1.4356324E-1,-7.164372E-3,-1.107954E0,3.5144198E-1,3.3665314E0,-4.1332364E-1,1.3616909E0,1.544491E-2,1.7917973E0,-9.1186404E-1,9.911598E-1,2.2858188E0,-1.0892986E0,-1.2516999E0,6.8421537E-1,-6.483229E-1,1.2344561E0,-1.2983708E-1,9.2838013E-1,-8.143335E-1,2.2952266E-1],"split_indices":[38,16,12,45,31,1,42,13,30,45,9,29,10,38,7,0,0,0,0,0,0,0,0,0,0,0,0,0,0,0,0],"split_type":[0,0,0,0,0,0,0,0,0,0,0,0,0,0,0,0,0,0,0,0,0,0,0,0,0,0,0,0,0,0,0],"sum_hessian":[2.6891697E3,3.157361E2,2.3734333E3,2.3089581E2,8.484031E1,9.2306244E1,2.2811272E3,1.783118E2,5.258402E1,2.1911665E1,6.2928646E1,1.0258808E1,8.204744E1,1.8674166E3,4.1371057E2,1.7215767E2,6.154129E0,1.9395212E1,3.318881E1,8.249446E0,1.3662219E1,6.0391743E1,2.5369043E0,8.164801E0,2.094008E0,7.1758504E0,7.487159E1,1.8069255E3,6.0491096E1,3.025069E2,1.1120368E2],"tree_param":{"num_deleted":"0","num_feature":"50","num_nodes":"31","size_leaf_vector":"0"}},{"base_weights":[-3.7920777E-2,-2.4682143E-1,7.260665E-2,2.3932417E-1,-3.9950114E-1,-3.0158576E-1,2.4566862E-1,-2.4515843E-1,1.1639394E0,-5.345211E-1,3.306857E-1,-7.996676E-1,-9.0258576E-2,-8.407646E-2,3.820876E-1,2.2877522E-2,-9.137209E-1,1.5162034E0,-9.2152756E-1,2.1793643E-2,-6.34391E-1,1.4559166E0,-2.723027E-1,-1.0494632E0,-4.4482705E-1,1.2669811E0,-2.541153E-1,8.11756E-1,-3.209431E-1,1.2226884E-2,6.0960114E-1],"categories":[],"categories_nodes":[],"categories_segments":[],"categories_sizes":[],"default_left":[true,true,true,true,true,true,true,true,true,true,true,true,true,true,true,false,false,false,false,false,false,false,false,false,false,false,false,false,false,false,false],"id":9,"left_children":[1,3,5,7,9,11,13,15,17,19,21,23,25,27,29,-1,-1,-1,-1,-1,-1,-1,-1,-1,-1,-1,-1,-1,-1,-1,-1],"loss_changes":[5.619305E1,6.2597923E1,1.0316217E2,9.071988E1,6.3391525E1,5.2963413E1,4.9020203E1,2.3907246E1,5.2517235E1,3.0099686E1,6.870709E1,1.2826065E1,7.924754E1,6.8058945E1,6.482972E1,0E0,0E0,0E0,0E0,0E0,0E0,0E0,0E0,0E0,0E0,0E0,0E0,0E0,0E0,0E0,0E0],"parents":[2147483647,0,0,1,1,2,2,3,3,4,4,5,5,6,6,7,7,8,8,9,9,10,10,11,11,12,12,13,13,14,14],"right_children":[2,4,6,8,10,12,14,16,18,20,22,24,26,28,30,-1,-1,-1,-1,-1,-1,-1,-1,-1,-1,-1,-1,-1,-1,-1,-1],"split_conditions":[-5.093129E-1,-5.667504E-1,-1.1065527E0,-2.8568262E-1,2.2495666E-1,-4.975029E-1,-5.093129E-1,-4.171237E-1,4.2794025E-1,-5.457431E-1,3.1413168E-1,1.0098125E0,6.639249E-2,-6.107099E-1,-4.975029E-1,2.2877522E-2,-9.137209E-1,1.5162034E0,-9.2152756E-1,2.1793643E-2,-6.34391E-1,1.4559166E0,-2.723027E-1,-1.0494632E0,-4.4482705E-1,1.2669811E0,-2.541153E-1,8.11756E-1,-3.209431E-1,1.2226884E-2,6.0960114E-1],"split_indices":[25,22,26,39,2,0,30,34,6,27,42,16,0,22,31,0,0,0,0,0,0,0,0,0,0,0,0,0,0,0,0],"split_type":[0,0,0,0,0,0,0,0,0,0,0,0,0,0,0,0,0,0,0,0,0,0,0,0,0,0,0,0,0,0,0],"sum_hessian":[2.4319558E3,8.410705E2,1.5908854E3,2.0088083E2,6.401897E2,5.0286163E2,1.0880238E3,1.3229523E2,6.8585594E1,5.405109E2,9.967874E1,1.4896906E2,3.5389258E2,3.1851324E2,7.695105E2,9.5124344E1,3.7170887E1,5.890816E1,9.677432E0,8.238361E1,4.5812732E2,3.4285114E1,6.539363E1,8.62761E1,6.2692963E1,3.7397076E1,3.1649548E2,6.609899E1,2.5241425E2,2.93474E2,4.7603653E2],"tree_param":{"num_deleted":"0","num_feature":"50","num_nodes":"31","size_leaf_vector":"0"}},{"base_weights":[-6.9162145E-2,-9.020283E-3,-6.3665324E-1,3.2973853E-1,-8.70713E-2,-7.8738165E-1,3.9121172E-1,-5.6155547E-2,1.4145145E0,1.5210591E-1,-2.1303704E-1,-6.468288E-1,-2.167801E0,1.290562E0,-4.6598786E-1,-3.055195E-1,9.735443E-1,4.961887E-1,2.303472E0,6.1221637E-2,1.389826E0,-6.363282E-1,-1.0859873E-1,-3.963252E-1,-1.1962901E0,-6.9942255E0,-1.3480783E0,9.027903E-2,1.4688526E0,8.8806635E-1,-1.5316951E0],"categories":[],"categories_nodes":[],"categories_segments":[],"categories_sizes":[],"default_left":[true,true,true,true,true,true,true,true,true,true,true,true,true,true,true,false,false,false,false,false,false,false,false,false,false,false,false,false,false,false,false],"id":10,"left_children":[1,3,5,7,9,11,13,15,17,19,21,23,25,27,29,-1,-1,-1,-1,-1,-1,-1,-1,-1,-1,-1,-1,-1,-1,-1,-1],"loss_changes":[7.696823E1,5.3973125E1,3.378772E1,1.6009546E2,5.001391E1,3.5227837E1,2.2421932E1,7.294205E1,8.0769775E1,6.43586E1,4.798821E1,2.3306595E1,5.7912285E1,2.8800545E0,2.3332535E1,0E0,0E0,0E0,0E0,0E0,0E0,0E0,0E0,0E0,0E0,0E0,0E0,0E0,0E0,0E0,0E0],"parents":[2147483647,0,0,1,1,2,2,3,3,4,4,5,5,6,6,7,7,8,8,9,9,10,10,11,11,12,12,13,13,14,14],"right_children":[2,4,6,8,10,12,14,16,18,20,22,24,26,28,30,-1,-1,-1,-1,-1,-1,-1,-1,-1,-1,-1,-1,-1,-1,-1,-1],"split_conditions":[6.8337303E-1,-4.1061094E-1,4.8249702E0,7.844649E-1,-1.9172776E-1,4.0148373E0,5.254429E0,9.0335155E-1,5.35645E-1,-4.975029E-1,2.857691E-1,9.293484E-1,-2.2849917E-1,4.9695044E0,3.6307664E0,-3.055195E-1,9.735443E-1,4.961887E-1,2.303472E0,6.1221637E-2,1.389826E0,-6.363282E-1,-1.0859873E-1,-3.963252E-1,-1.1962901E0,-6.9942255E0,-1.3480783E0,9.027903E-2,1.4688526E0,8.8806635E-1,-1.5316951E0],"split_indices":[47,28,7,46,41,47,47,40,1,41,41,29,29,7,39,0,0,0,0,0,0,0,0,0,0,0,0,0,0,0,0],"split_type":[0,0,0,0,0,0,0,0,0,0,0,0,0,0,0,0,0,0,0,0,0,0,0,0,0,0,0,0,0,0,0],"sum_hessian":[2.254319E3,2.0392214E3,2.1509775E2,3.8125687E2,1.6579645E3,1.8779329E2,2.7304453E1,2.8191702E2,9.933985E1,5.718872E2,1.0860773E3,1.717722E2,1.6021093E1,1.3077911E1,1.4226542E1,2.2752118E2,5.439585E1,4.9629215E1,4.9710636E1,5.3374445E2,3.8142742E1,2.1392815E2,8.721492E2,1.1916519E2,5.2607006E1,1.232407E0,1.4788687E1,1.8861802E0,1.11917305E1,6.339042E0,7.8875E0],"tree_param":{"num_deleted":"0","num_feature":"50","num_nodes":"31","size_leaf_vector":"0"}},{"base_weights":[-1.742764E-2,-4.3515485E-2,7.914827E-1,1.26968E-1,-1.888141E-1,8.57704E-1,-6.423596E-1,-8.062845E-2,5.5302536E-1,-6.557206E-1,-5.3572204E-2,-1.2637945E-1,9.471274E-1,1.8216033E-1,-1.068557E0,-2.5464508E-1,5.045204E-1,1.3534225E0,3.1036916E-1,-8.109249E-1,-2.144261E-2,3.6244416E-1,-2.4573731E-1,7.4398595E-1,-9.857704E-1,-2.2146082E-1,9.895538E-1],"categories":[],"categories_nodes":[],"categories_segments":[],"categories_sizes":[],"default_left":[true,true,true,true,true,true,true,true,true,true,true,true,true,false,false,false,false,false,false,false,false,false,false,false,false,false,false],"id":11,"left_children":[1,3,5,7,9,11,13,15,17,19,21,23,25,-1,-1,-1,-1,-1,-1,-1,-1,-1,-1,-1,-1,-1,-1],"loss_changes":[4.5719757E1,5.199878E1,6.9781914E0,8.548827E1,7.1519745E1,5.8511505E0,1.4456637E0,6.635748E1,6.107373E1,2.502855E1,7.042014E1,5.451405E0,3.185089E0,0E0,0E0,0E0,0E0,0E0,0E0,0E0,0E0,0E0,0E0,0E0,0E0,0E0,0E0],"parents":[2147483647,0,0,1,1,2,2,3,3,4,4,5,5,6,6,7,7,8,8,9,9,10,10,11,11,12,12],"right_children":[2,4,6,8,10,12,14,16,18,20,22,24,26,-1,-1,-1,-1,-1,-1,-1,-1,-1,-1,-1,-1,-1,-1],"split_conditions":[3.526306E0,-4.4049007E-1,5.712167E0,6.2154293E-1,-1.107954E0,1.0203781E0,5.6480794E0,-5.6063756E-3,-4.0206873E-1,2.3110002E-1,-4.8842555E-1,1.1150315E0,3.1670465E0,1.8216033E-1,-1.068557E0,-2.5464508E-1,5.045204E-1,1.3534225E0,3.1036916E-1,-8.109249E-1,-2.144261E-2,3.6244416E-1,-2.4573731E-1,7.4398595E-1,-9.857704E-1,-2.2146082E-1,9.895538E-1],"split_indices":[3,4,14,11,45,10,9,2,18,22,47,2,37,0,0,0,0,0,0,0,0,0,0,0,0,0,0],"split_type":[0,0,0,0,0,0,0,0,0,0,0,0,0,0,0,0,0,0,0,0,0,0,0,0,0,0,0],"sum_hessian":[2.163901E3,2.0972107E3,6.669011E1,9.65033E2,1.1321777E3,6.4130104E1,2.5600047E0,6.494159E2,3.1561713E2,2.5342157E2,8.7875616E2,5.307628E0,5.8822475E1,1.0674708E0,1.4925338E0,5.0099152E2,1.4842438E2,7.236033E1,2.4325679E2,2.0337769E2,5.0043896E1,2.7737775E2,6.013784E2,2.7036943E0,2.6039336E0,1.9129362E0,5.690954E1],"tree_param":{"num_deleted":"0","num_feature":"50","num_nodes":"27","size_leaf_vector":"0"}},{"base_weights":[-3.2435283E-2,-3.9981142E-1,3.250588E-2,5.0745225E-1,-6.6360104E-1,-2.7468637E-1,1.03752196E-1,2.027019E0,2.5459212E-1,8.700015E-2,-8.564141E-1,-4.4998357E-1,8.1712604E-1,-1.543929E-1,1.7492661E-1,2.7680962E0,-4.6462685E-2,-3.0308428E-1,5.5386776E-1,-7.145323E-1,7.05724E-1,-1.4426847E0,-7.1956336E-1,-2.9425332E-2,-7.22577E-1,-1.0830085E0,1.24469E0,-3.7182334E-1,5.385377E-1,1.193757E0,1.523884E-1],"categories":[],"categories_nodes":[],"categories_segments":[],"categories_sizes":[],"default_left":[true,true,true,true,true,true,true,true,true,true,true,true,true,true,true,false,false,false,false,false,false,false,false,false,false,false,false,false,false,false,false],"id":12,"left_children":[1,3,5,7,9,11,13,15,17,19,21,23,25,27,29,-1,-1,-1,-1,-1,-1,-1,-1,-1,-1,-1,-1,-1,-1,-1,-1],"loss_changes":[4.9437065E1,7.483071E1,3.8577805E1,2.664251E1,3.503779E1,6.3885105E1,2.6309528E1,1.5402573E1,1.0472483E1,2.5440487E1,1.4390503E1,3.2835407E1,3.893714E1,4.6859863E1,2.5577072E1,0E0,0E0,0E0,0E0,0E0,0E0,0E0,0E0,0E0,0E0,0E0,0E0,0E0,0E0,0E0,0E0],"parents":[2147483647,0,0,1,1,2,2,3,3,4,4,5,5,6,6,7,7,8,8,9,9,10,10,11,11,12,12,13,13,14,14],"right_children":[2,4,6,8,10,12,14,16,18,20,22,24,26,28,30,-1,-1,-1,-1,-1,-1,-1,-1,-1,-1,-1,-1,-1,-1,-1,-1],"split_conditions":[-4.2848903E-1,-4.677003E-1,-5.99686E-1,-6.649978E-1,-4.394989E-1,1.8410526E-2,-1.107954E0,-5.4079604E-1,-6.014791E-1,1.7108132E-1,-4.3577814E-1,-1.9209355E-1,-3.3601004E-1,2.153129E-1,-6.7994463E-1,2.7680962E0,-4.6462685E-2,-3.0308428E-1,5.5386776E-1,-7.145323E-1,7.05724E-1,-1.4426847E0,-7.1956336E-1,-2.9425332E-2,-7.22577E-1,-1.0830085E0,1.24469E0,-3.7182334E-1,5.385377E-1,1.193757E0,1.523884E-1],"split_indices":[33,32,7,42,43,14,0,47,32,6,23,40,23,7,17,0,0,0,0,0,0,0,0,0,0,0,0,0,0,0,0],"split_type":[0,0,0,0,0,0,0,0,0,0,0,0,0,0,0,0,0,0,0,0,0,0,0,0,0,0,0,0,0,0,0],"sum_hessian":[2.0706077E3,3.102647E2,1.7603429E3,6.968166E1,2.4058304E2,3.308714E2,1.4294714E3,8.940034E0,6.074163E1,4.9282024E1,1.9130101E2,2.8560382E2,4.526759E1,3.0869284E2,1.1207787E3,6.3393173E0,2.6007166E0,2.1208517E1,3.953311E1,2.1401878E1,2.7880144E1,3.4397884E1,1.5690312E2,1.12754166E2,1.7284964E2,8.033404E0,3.7234184E1,2.3531744E2,7.3375404E1,2.3132189E1,1.0976465E3],"tree_param":{"num_deleted":"0","num_feature":"50","num_nodes":"31","size_leaf_vector":"0"}},{"base_weights":[-2.9153602E-2,4.4149545E-1,-5.2698407E-2,6.7128354E-1,-7.9869765E-1,3.2862133E-1,-8.3939776E-2,8.221728E-1,-5.516341E-1,9.581907E-1,-1.0180506E0,-8.565186E-2,1.2259405E0,-4.5144308E-1,-4.6877988E-2,4.4245014E-1,1.4180554E0,3.032417E-1,-1.1600478E0,-1.2374864E0,7.599685E-1,-6.252332E-1,2.836545E-1,-2.2241454E-1,1.4664184E0,-1.3873684E-1,-8.671528E-1,-1.3340122E-1,9.0756774E-2],"categories":[],"categories_nodes":[],"categories_segments":[],"categories_sizes":[],"default_left":[true,true,true,true,true,true,true,true,true,false,true,true,true,true,true,false,false,false,false,false,false,false,false,false,false,false,false,false,false],"id":13,"left_children":[1,3,5,7,9,11,13,15,17,-1,19,21,23,25,27,-1,-1,-1,-1,-1,-1,-1,-1,-1,-1,-1,-1,-1,-1],"loss_changes":[2.279959E1,2.8473076E1,2.3357254E1,1.5815216E1,7.057086E0,5.5307697E1,2.4643147E1,1.6231453E1,5.4187818E0,0E0,6.6032915E0,2.060863E1,1.66856E1,2.1429462E1,1.9614521E1,0E0,0E0,0E0,0E0,0E0,0E0,0E0,0E0,0E0,0E0,0E0,0E0,0E0,0E0],"parents":[2147483647,0,0,1,1,2,2,3,3,4,4,5,5,6,6,7,7,8,8,10,10,11,11,12,12,13,13,14,14],"right_children":[2,4,6,8,10,12,14,16,18,-1,20,22,24,26,28,-1,-1,-1,-1,-1,-1,-1,-1,-1,-1,-1,-1,-1,-1],"split_conditions":[-6.693847E-1,4.203725E-1,-4.477421E-1,5.759702E-1,-6.476966E-1,5.034072E-1,-4.3639266E-1,-3.396058E-1,-4.5776975E-1,9.581907E-1,-1.20111264E-1,1.2288351E-1,-5.312213E-1,4.1978696E-1,8.3974063E-1,4.4245014E-1,1.4180554E0,3.032417E-1,-1.1600478E0,-1.2374864E0,7.599685E-1,-6.252332E-1,2.836545E-1,-2.2241454E-1,1.4664184E0,-1.3873684E-1,-8.671528E-1,-1.3340122E-1,9.0756774E-2],"split_indices":[7,21,18,45,19,45,23,33,14,0,3,36,37,11,6,0,0,0,0,0,0,0,0,0,0,0,0,0,0],"split_type":[0,0,0,0,0,0,0,0,0,0,0,0,0,0,0,0,0,0,0,0,0,0,0,0,0,0,0,0,0],"sum_hessian":[2.054376E3,9.7030624E1,1.9573455E3,8.224977E1,1.4780849E1,1.475E2,1.8098455E3,7.350774E1,8.742033E0,1.2667401E0,1.351411E1,1.0153021E2,4.5969795E1,1.647738E2,1.6450717E3,4.5961536E1,2.7546204E1,3.843357E0,4.8986754E0,1.2300091E1,1.2140181E0,4.097297E1,6.0557243E1,6.556469E0,3.9413326E1,9.47982E1,6.99756E1,1.0101058E3,6.349659E2],"tree_param":{"num_deleted":"0","num_feature":"50","num_nodes":"29","size_leaf_vector":"0"}}]},"name":"gbtree"},"learner_model_param":{"base_score":"5E-1","num_class":"0","num_feature":"50"},"objective":{"name":"binary:logistic","reg_loss_param":{"scale_pos_weight":"1"}}},"version":[1,3,3]}